//test return 2096128
// Stress tests the compiler for a big almost complete graph
// and a relatively deep IR tree.

int main() {
	int var0 = 0;
	int var1 = 1;
	int var2 = 2;
	int var3 = 3;
	int var4 = 4;
	int var5 = 5;
	int var6 = 6;
	int var7 = 7;
	int var8 = 8;
	int var9 = 9;
	int var10 = 10;
	int var11 = 11;
	int var12 = 12;
	int var13 = 13;
	int var14 = 14;
	int var15 = 15;
	int var16 = 16;
	int var17 = 17;
	int var18 = 18;
	int var19 = 19;
	int var20 = 20;
	int var21 = 21;
	int var22 = 22;
	int var23 = 23;
	int var24 = 24;
	int var25 = 25;
	int var26 = 26;
	int var27 = 27;
	int var28 = 28;
	int var29 = 29;
	int var30 = 30;
	int var31 = 31;
	int var32 = 32;
	int var33 = 33;
	int var34 = 34;
	int var35 = 35;
	int var36 = 36;
	int var37 = 37;
	int var38 = 38;
	int var39 = 39;
	int var40 = 40;
	int var41 = 41;
	int var42 = 42;
	int var43 = 43;
	int var44 = 44;
	int var45 = 45;
	int var46 = 46;
	int var47 = 47;
	int var48 = 48;
	int var49 = 49;
	int var50 = 50;
	int var51 = 51;
	int var52 = 52;
	int var53 = 53;
	int var54 = 54;
	int var55 = 55;
	int var56 = 56;
	int var57 = 57;
	int var58 = 58;
	int var59 = 59;
	int var60 = 60;
	int var61 = 61;
	int var62 = 62;
	int var63 = 63;
	int var64 = 64;
	int var65 = 65;
	int var66 = 66;
	int var67 = 67;
	int var68 = 68;
	int var69 = 69;
	int var70 = 70;
	int var71 = 71;
	int var72 = 72;
	int var73 = 73;
	int var74 = 74;
	int var75 = 75;
	int var76 = 76;
	int var77 = 77;
	int var78 = 78;
	int var79 = 79;
	int var80 = 80;
	int var81 = 81;
	int var82 = 82;
	int var83 = 83;
	int var84 = 84;
	int var85 = 85;
	int var86 = 86;
	int var87 = 87;
	int var88 = 88;
	int var89 = 89;
	int var90 = 90;
	int var91 = 91;
	int var92 = 92;
	int var93 = 93;
	int var94 = 94;
	int var95 = 95;
	int var96 = 96;
	int var97 = 97;
	int var98 = 98;
	int var99 = 99;
	int var100 = 100;
	int var101 = 101;
	int var102 = 102;
	int var103 = 103;
	int var104 = 104;
	int var105 = 105;
	int var106 = 106;
	int var107 = 107;
	int var108 = 108;
	int var109 = 109;
	int var110 = 110;
	int var111 = 111;
	int var112 = 112;
	int var113 = 113;
	int var114 = 114;
	int var115 = 115;
	int var116 = 116;
	int var117 = 117;
	int var118 = 118;
	int var119 = 119;
	int var120 = 120;
	int var121 = 121;
	int var122 = 122;
	int var123 = 123;
	int var124 = 124;
	int var125 = 125;
	int var126 = 126;
	int var127 = 127;
	int var128 = 128;
	int var129 = 129;
	int var130 = 130;
	int var131 = 131;
	int var132 = 132;
	int var133 = 133;
	int var134 = 134;
	int var135 = 135;
	int var136 = 136;
	int var137 = 137;
	int var138 = 138;
	int var139 = 139;
	int var140 = 140;
	int var141 = 141;
	int var142 = 142;
	int var143 = 143;
	int var144 = 144;
	int var145 = 145;
	int var146 = 146;
	int var147 = 147;
	int var148 = 148;
	int var149 = 149;
	int var150 = 150;
	int var151 = 151;
	int var152 = 152;
	int var153 = 153;
	int var154 = 154;
	int var155 = 155;
	int var156 = 156;
	int var157 = 157;
	int var158 = 158;
	int var159 = 159;
	int var160 = 160;
	int var161 = 161;
	int var162 = 162;
	int var163 = 163;
	int var164 = 164;
	int var165 = 165;
	int var166 = 166;
	int var167 = 167;
	int var168 = 168;
	int var169 = 169;
	int var170 = 170;
	int var171 = 171;
	int var172 = 172;
	int var173 = 173;
	int var174 = 174;
	int var175 = 175;
	int var176 = 176;
	int var177 = 177;
	int var178 = 178;
	int var179 = 179;
	int var180 = 180;
	int var181 = 181;
	int var182 = 182;
	int var183 = 183;
	int var184 = 184;
	int var185 = 185;
	int var186 = 186;
	int var187 = 187;
	int var188 = 188;
	int var189 = 189;
	int var190 = 190;
	int var191 = 191;
	int var192 = 192;
	int var193 = 193;
	int var194 = 194;
	int var195 = 195;
	int var196 = 196;
	int var197 = 197;
	int var198 = 198;
	int var199 = 199;
	int var200 = 200;
	int var201 = 201;
	int var202 = 202;
	int var203 = 203;
	int var204 = 204;
	int var205 = 205;
	int var206 = 206;
	int var207 = 207;
	int var208 = 208;
	int var209 = 209;
	int var210 = 210;
	int var211 = 211;
	int var212 = 212;
	int var213 = 213;
	int var214 = 214;
	int var215 = 215;
	int var216 = 216;
	int var217 = 217;
	int var218 = 218;
	int var219 = 219;
	int var220 = 220;
	int var221 = 221;
	int var222 = 222;
	int var223 = 223;
	int var224 = 224;
	int var225 = 225;
	int var226 = 226;
	int var227 = 227;
	int var228 = 228;
	int var229 = 229;
	int var230 = 230;
	int var231 = 231;
	int var232 = 232;
	int var233 = 233;
	int var234 = 234;
	int var235 = 235;
	int var236 = 236;
	int var237 = 237;
	int var238 = 238;
	int var239 = 239;
	int var240 = 240;
	int var241 = 241;
	int var242 = 242;
	int var243 = 243;
	int var244 = 244;
	int var245 = 245;
	int var246 = 246;
	int var247 = 247;
	int var248 = 248;
	int var249 = 249;
	int var250 = 250;
	int var251 = 251;
	int var252 = 252;
	int var253 = 253;
	int var254 = 254;
	int var255 = 255;
	int var256 = 256;
	int var257 = 257;
	int var258 = 258;
	int var259 = 259;
	int var260 = 260;
	int var261 = 261;
	int var262 = 262;
	int var263 = 263;
	int var264 = 264;
	int var265 = 265;
	int var266 = 266;
	int var267 = 267;
	int var268 = 268;
	int var269 = 269;
	int var270 = 270;
	int var271 = 271;
	int var272 = 272;
	int var273 = 273;
	int var274 = 274;
	int var275 = 275;
	int var276 = 276;
	int var277 = 277;
	int var278 = 278;
	int var279 = 279;
	int var280 = 280;
	int var281 = 281;
	int var282 = 282;
	int var283 = 283;
	int var284 = 284;
	int var285 = 285;
	int var286 = 286;
	int var287 = 287;
	int var288 = 288;
	int var289 = 289;
	int var290 = 290;
	int var291 = 291;
	int var292 = 292;
	int var293 = 293;
	int var294 = 294;
	int var295 = 295;
	int var296 = 296;
	int var297 = 297;
	int var298 = 298;
	int var299 = 299;
	int var300 = 300;
	int var301 = 301;
	int var302 = 302;
	int var303 = 303;
	int var304 = 304;
	int var305 = 305;
	int var306 = 306;
	int var307 = 307;
	int var308 = 308;
	int var309 = 309;
	int var310 = 310;
	int var311 = 311;
	int var312 = 312;
	int var313 = 313;
	int var314 = 314;
	int var315 = 315;
	int var316 = 316;
	int var317 = 317;
	int var318 = 318;
	int var319 = 319;
	int var320 = 320;
	int var321 = 321;
	int var322 = 322;
	int var323 = 323;
	int var324 = 324;
	int var325 = 325;
	int var326 = 326;
	int var327 = 327;
	int var328 = 328;
	int var329 = 329;
	int var330 = 330;
	int var331 = 331;
	int var332 = 332;
	int var333 = 333;
	int var334 = 334;
	int var335 = 335;
	int var336 = 336;
	int var337 = 337;
	int var338 = 338;
	int var339 = 339;
	int var340 = 340;
	int var341 = 341;
	int var342 = 342;
	int var343 = 343;
	int var344 = 344;
	int var345 = 345;
	int var346 = 346;
	int var347 = 347;
	int var348 = 348;
	int var349 = 349;
	int var350 = 350;
	int var351 = 351;
	int var352 = 352;
	int var353 = 353;
	int var354 = 354;
	int var355 = 355;
	int var356 = 356;
	int var357 = 357;
	int var358 = 358;
	int var359 = 359;
	int var360 = 360;
	int var361 = 361;
	int var362 = 362;
	int var363 = 363;
	int var364 = 364;
	int var365 = 365;
	int var366 = 366;
	int var367 = 367;
	int var368 = 368;
	int var369 = 369;
	int var370 = 370;
	int var371 = 371;
	int var372 = 372;
	int var373 = 373;
	int var374 = 374;
	int var375 = 375;
	int var376 = 376;
	int var377 = 377;
	int var378 = 378;
	int var379 = 379;
	int var380 = 380;
	int var381 = 381;
	int var382 = 382;
	int var383 = 383;
	int var384 = 384;
	int var385 = 385;
	int var386 = 386;
	int var387 = 387;
	int var388 = 388;
	int var389 = 389;
	int var390 = 390;
	int var391 = 391;
	int var392 = 392;
	int var393 = 393;
	int var394 = 394;
	int var395 = 395;
	int var396 = 396;
	int var397 = 397;
	int var398 = 398;
	int var399 = 399;
	int var400 = 400;
	int var401 = 401;
	int var402 = 402;
	int var403 = 403;
	int var404 = 404;
	int var405 = 405;
	int var406 = 406;
	int var407 = 407;
	int var408 = 408;
	int var409 = 409;
	int var410 = 410;
	int var411 = 411;
	int var412 = 412;
	int var413 = 413;
	int var414 = 414;
	int var415 = 415;
	int var416 = 416;
	int var417 = 417;
	int var418 = 418;
	int var419 = 419;
	int var420 = 420;
	int var421 = 421;
	int var422 = 422;
	int var423 = 423;
	int var424 = 424;
	int var425 = 425;
	int var426 = 426;
	int var427 = 427;
	int var428 = 428;
	int var429 = 429;
	int var430 = 430;
	int var431 = 431;
	int var432 = 432;
	int var433 = 433;
	int var434 = 434;
	int var435 = 435;
	int var436 = 436;
	int var437 = 437;
	int var438 = 438;
	int var439 = 439;
	int var440 = 440;
	int var441 = 441;
	int var442 = 442;
	int var443 = 443;
	int var444 = 444;
	int var445 = 445;
	int var446 = 446;
	int var447 = 447;
	int var448 = 448;
	int var449 = 449;
	int var450 = 450;
	int var451 = 451;
	int var452 = 452;
	int var453 = 453;
	int var454 = 454;
	int var455 = 455;
	int var456 = 456;
	int var457 = 457;
	int var458 = 458;
	int var459 = 459;
	int var460 = 460;
	int var461 = 461;
	int var462 = 462;
	int var463 = 463;
	int var464 = 464;
	int var465 = 465;
	int var466 = 466;
	int var467 = 467;
	int var468 = 468;
	int var469 = 469;
	int var470 = 470;
	int var471 = 471;
	int var472 = 472;
	int var473 = 473;
	int var474 = 474;
	int var475 = 475;
	int var476 = 476;
	int var477 = 477;
	int var478 = 478;
	int var479 = 479;
	int var480 = 480;
	int var481 = 481;
	int var482 = 482;
	int var483 = 483;
	int var484 = 484;
	int var485 = 485;
	int var486 = 486;
	int var487 = 487;
	int var488 = 488;
	int var489 = 489;
	int var490 = 490;
	int var491 = 491;
	int var492 = 492;
	int var493 = 493;
	int var494 = 494;
	int var495 = 495;
	int var496 = 496;
	int var497 = 497;
	int var498 = 498;
	int var499 = 499;
	int var500 = 500;
	int var501 = 501;
	int var502 = 502;
	int var503 = 503;
	int var504 = 504;
	int var505 = 505;
	int var506 = 506;
	int var507 = 507;
	int var508 = 508;
	int var509 = 509;
	int var510 = 510;
	int var511 = 511;
	int var512 = 512;
	int var513 = 513;
	int var514 = 514;
	int var515 = 515;
	int var516 = 516;
	int var517 = 517;
	int var518 = 518;
	int var519 = 519;
	int var520 = 520;
	int var521 = 521;
	int var522 = 522;
	int var523 = 523;
	int var524 = 524;
	int var525 = 525;
	int var526 = 526;
	int var527 = 527;
	int var528 = 528;
	int var529 = 529;
	int var530 = 530;
	int var531 = 531;
	int var532 = 532;
	int var533 = 533;
	int var534 = 534;
	int var535 = 535;
	int var536 = 536;
	int var537 = 537;
	int var538 = 538;
	int var539 = 539;
	int var540 = 540;
	int var541 = 541;
	int var542 = 542;
	int var543 = 543;
	int var544 = 544;
	int var545 = 545;
	int var546 = 546;
	int var547 = 547;
	int var548 = 548;
	int var549 = 549;
	int var550 = 550;
	int var551 = 551;
	int var552 = 552;
	int var553 = 553;
	int var554 = 554;
	int var555 = 555;
	int var556 = 556;
	int var557 = 557;
	int var558 = 558;
	int var559 = 559;
	int var560 = 560;
	int var561 = 561;
	int var562 = 562;
	int var563 = 563;
	int var564 = 564;
	int var565 = 565;
	int var566 = 566;
	int var567 = 567;
	int var568 = 568;
	int var569 = 569;
	int var570 = 570;
	int var571 = 571;
	int var572 = 572;
	int var573 = 573;
	int var574 = 574;
	int var575 = 575;
	int var576 = 576;
	int var577 = 577;
	int var578 = 578;
	int var579 = 579;
	int var580 = 580;
	int var581 = 581;
	int var582 = 582;
	int var583 = 583;
	int var584 = 584;
	int var585 = 585;
	int var586 = 586;
	int var587 = 587;
	int var588 = 588;
	int var589 = 589;
	int var590 = 590;
	int var591 = 591;
	int var592 = 592;
	int var593 = 593;
	int var594 = 594;
	int var595 = 595;
	int var596 = 596;
	int var597 = 597;
	int var598 = 598;
	int var599 = 599;
	int var600 = 600;
	int var601 = 601;
	int var602 = 602;
	int var603 = 603;
	int var604 = 604;
	int var605 = 605;
	int var606 = 606;
	int var607 = 607;
	int var608 = 608;
	int var609 = 609;
	int var610 = 610;
	int var611 = 611;
	int var612 = 612;
	int var613 = 613;
	int var614 = 614;
	int var615 = 615;
	int var616 = 616;
	int var617 = 617;
	int var618 = 618;
	int var619 = 619;
	int var620 = 620;
	int var621 = 621;
	int var622 = 622;
	int var623 = 623;
	int var624 = 624;
	int var625 = 625;
	int var626 = 626;
	int var627 = 627;
	int var628 = 628;
	int var629 = 629;
	int var630 = 630;
	int var631 = 631;
	int var632 = 632;
	int var633 = 633;
	int var634 = 634;
	int var635 = 635;
	int var636 = 636;
	int var637 = 637;
	int var638 = 638;
	int var639 = 639;
	int var640 = 640;
	int var641 = 641;
	int var642 = 642;
	int var643 = 643;
	int var644 = 644;
	int var645 = 645;
	int var646 = 646;
	int var647 = 647;
	int var648 = 648;
	int var649 = 649;
	int var650 = 650;
	int var651 = 651;
	int var652 = 652;
	int var653 = 653;
	int var654 = 654;
	int var655 = 655;
	int var656 = 656;
	int var657 = 657;
	int var658 = 658;
	int var659 = 659;
	int var660 = 660;
	int var661 = 661;
	int var662 = 662;
	int var663 = 663;
	int var664 = 664;
	int var665 = 665;
	int var666 = 666;
	int var667 = 667;
	int var668 = 668;
	int var669 = 669;
	int var670 = 670;
	int var671 = 671;
	int var672 = 672;
	int var673 = 673;
	int var674 = 674;
	int var675 = 675;
	int var676 = 676;
	int var677 = 677;
	int var678 = 678;
	int var679 = 679;
	int var680 = 680;
	int var681 = 681;
	int var682 = 682;
	int var683 = 683;
	int var684 = 684;
	int var685 = 685;
	int var686 = 686;
	int var687 = 687;
	int var688 = 688;
	int var689 = 689;
	int var690 = 690;
	int var691 = 691;
	int var692 = 692;
	int var693 = 693;
	int var694 = 694;
	int var695 = 695;
	int var696 = 696;
	int var697 = 697;
	int var698 = 698;
	int var699 = 699;
	int var700 = 700;
	int var701 = 701;
	int var702 = 702;
	int var703 = 703;
	int var704 = 704;
	int var705 = 705;
	int var706 = 706;
	int var707 = 707;
	int var708 = 708;
	int var709 = 709;
	int var710 = 710;
	int var711 = 711;
	int var712 = 712;
	int var713 = 713;
	int var714 = 714;
	int var715 = 715;
	int var716 = 716;
	int var717 = 717;
	int var718 = 718;
	int var719 = 719;
	int var720 = 720;
	int var721 = 721;
	int var722 = 722;
	int var723 = 723;
	int var724 = 724;
	int var725 = 725;
	int var726 = 726;
	int var727 = 727;
	int var728 = 728;
	int var729 = 729;
	int var730 = 730;
	int var731 = 731;
	int var732 = 732;
	int var733 = 733;
	int var734 = 734;
	int var735 = 735;
	int var736 = 736;
	int var737 = 737;
	int var738 = 738;
	int var739 = 739;
	int var740 = 740;
	int var741 = 741;
	int var742 = 742;
	int var743 = 743;
	int var744 = 744;
	int var745 = 745;
	int var746 = 746;
	int var747 = 747;
	int var748 = 748;
	int var749 = 749;
	int var750 = 750;
	int var751 = 751;
	int var752 = 752;
	int var753 = 753;
	int var754 = 754;
	int var755 = 755;
	int var756 = 756;
	int var757 = 757;
	int var758 = 758;
	int var759 = 759;
	int var760 = 760;
	int var761 = 761;
	int var762 = 762;
	int var763 = 763;
	int var764 = 764;
	int var765 = 765;
	int var766 = 766;
	int var767 = 767;
	int var768 = 768;
	int var769 = 769;
	int var770 = 770;
	int var771 = 771;
	int var772 = 772;
	int var773 = 773;
	int var774 = 774;
	int var775 = 775;
	int var776 = 776;
	int var777 = 777;
	int var778 = 778;
	int var779 = 779;
	int var780 = 780;
	int var781 = 781;
	int var782 = 782;
	int var783 = 783;
	int var784 = 784;
	int var785 = 785;
	int var786 = 786;
	int var787 = 787;
	int var788 = 788;
	int var789 = 789;
	int var790 = 790;
	int var791 = 791;
	int var792 = 792;
	int var793 = 793;
	int var794 = 794;
	int var795 = 795;
	int var796 = 796;
	int var797 = 797;
	int var798 = 798;
	int var799 = 799;
	int var800 = 800;
	int var801 = 801;
	int var802 = 802;
	int var803 = 803;
	int var804 = 804;
	int var805 = 805;
	int var806 = 806;
	int var807 = 807;
	int var808 = 808;
	int var809 = 809;
	int var810 = 810;
	int var811 = 811;
	int var812 = 812;
	int var813 = 813;
	int var814 = 814;
	int var815 = 815;
	int var816 = 816;
	int var817 = 817;
	int var818 = 818;
	int var819 = 819;
	int var820 = 820;
	int var821 = 821;
	int var822 = 822;
	int var823 = 823;
	int var824 = 824;
	int var825 = 825;
	int var826 = 826;
	int var827 = 827;
	int var828 = 828;
	int var829 = 829;
	int var830 = 830;
	int var831 = 831;
	int var832 = 832;
	int var833 = 833;
	int var834 = 834;
	int var835 = 835;
	int var836 = 836;
	int var837 = 837;
	int var838 = 838;
	int var839 = 839;
	int var840 = 840;
	int var841 = 841;
	int var842 = 842;
	int var843 = 843;
	int var844 = 844;
	int var845 = 845;
	int var846 = 846;
	int var847 = 847;
	int var848 = 848;
	int var849 = 849;
	int var850 = 850;
	int var851 = 851;
	int var852 = 852;
	int var853 = 853;
	int var854 = 854;
	int var855 = 855;
	int var856 = 856;
	int var857 = 857;
	int var858 = 858;
	int var859 = 859;
	int var860 = 860;
	int var861 = 861;
	int var862 = 862;
	int var863 = 863;
	int var864 = 864;
	int var865 = 865;
	int var866 = 866;
	int var867 = 867;
	int var868 = 868;
	int var869 = 869;
	int var870 = 870;
	int var871 = 871;
	int var872 = 872;
	int var873 = 873;
	int var874 = 874;
	int var875 = 875;
	int var876 = 876;
	int var877 = 877;
	int var878 = 878;
	int var879 = 879;
	int var880 = 880;
	int var881 = 881;
	int var882 = 882;
	int var883 = 883;
	int var884 = 884;
	int var885 = 885;
	int var886 = 886;
	int var887 = 887;
	int var888 = 888;
	int var889 = 889;
	int var890 = 890;
	int var891 = 891;
	int var892 = 892;
	int var893 = 893;
	int var894 = 894;
	int var895 = 895;
	int var896 = 896;
	int var897 = 897;
	int var898 = 898;
	int var899 = 899;
	int var900 = 900;
	int var901 = 901;
	int var902 = 902;
	int var903 = 903;
	int var904 = 904;
	int var905 = 905;
	int var906 = 906;
	int var907 = 907;
	int var908 = 908;
	int var909 = 909;
	int var910 = 910;
	int var911 = 911;
	int var912 = 912;
	int var913 = 913;
	int var914 = 914;
	int var915 = 915;
	int var916 = 916;
	int var917 = 917;
	int var918 = 918;
	int var919 = 919;
	int var920 = 920;
	int var921 = 921;
	int var922 = 922;
	int var923 = 923;
	int var924 = 924;
	int var925 = 925;
	int var926 = 926;
	int var927 = 927;
	int var928 = 928;
	int var929 = 929;
	int var930 = 930;
	int var931 = 931;
	int var932 = 932;
	int var933 = 933;
	int var934 = 934;
	int var935 = 935;
	int var936 = 936;
	int var937 = 937;
	int var938 = 938;
	int var939 = 939;
	int var940 = 940;
	int var941 = 941;
	int var942 = 942;
	int var943 = 943;
	int var944 = 944;
	int var945 = 945;
	int var946 = 946;
	int var947 = 947;
	int var948 = 948;
	int var949 = 949;
	int var950 = 950;
	int var951 = 951;
	int var952 = 952;
	int var953 = 953;
	int var954 = 954;
	int var955 = 955;
	int var956 = 956;
	int var957 = 957;
	int var958 = 958;
	int var959 = 959;
	int var960 = 960;
	int var961 = 961;
	int var962 = 962;
	int var963 = 963;
	int var964 = 964;
	int var965 = 965;
	int var966 = 966;
	int var967 = 967;
	int var968 = 968;
	int var969 = 969;
	int var970 = 970;
	int var971 = 971;
	int var972 = 972;
	int var973 = 973;
	int var974 = 974;
	int var975 = 975;
	int var976 = 976;
	int var977 = 977;
	int var978 = 978;
	int var979 = 979;
	int var980 = 980;
	int var981 = 981;
	int var982 = 982;
	int var983 = 983;
	int var984 = 984;
	int var985 = 985;
	int var986 = 986;
	int var987 = 987;
	int var988 = 988;
	int var989 = 989;
	int var990 = 990;
	int var991 = 991;
	int var992 = 992;
	int var993 = 993;
	int var994 = 994;
	int var995 = 995;
	int var996 = 996;
	int var997 = 997;
	int var998 = 998;
	int var999 = 999;
	int var1000 = 1000;
	int var1001 = 1001;
	int var1002 = 1002;
	int var1003 = 1003;
	int var1004 = 1004;
	int var1005 = 1005;
	int var1006 = 1006;
	int var1007 = 1007;
	int var1008 = 1008;
	int var1009 = 1009;
	int var1010 = 1010;
	int var1011 = 1011;
	int var1012 = 1012;
	int var1013 = 1013;
	int var1014 = 1014;
	int var1015 = 1015;
	int var1016 = 1016;
	int var1017 = 1017;
	int var1018 = 1018;
	int var1019 = 1019;
	int var1020 = 1020;
	int var1021 = 1021;
	int var1022 = 1022;
	int var1023 = 1023;
	int var1024 = 1024;
	int var1025 = 1025;
	int var1026 = 1026;
	int var1027 = 1027;
	int var1028 = 1028;
	int var1029 = 1029;
	int var1030 = 1030;
	int var1031 = 1031;
	int var1032 = 1032;
	int var1033 = 1033;
	int var1034 = 1034;
	int var1035 = 1035;
	int var1036 = 1036;
	int var1037 = 1037;
	int var1038 = 1038;
	int var1039 = 1039;
	int var1040 = 1040;
	int var1041 = 1041;
	int var1042 = 1042;
	int var1043 = 1043;
	int var1044 = 1044;
	int var1045 = 1045;
	int var1046 = 1046;
	int var1047 = 1047;
	int var1048 = 1048;
	int var1049 = 1049;
	int var1050 = 1050;
	int var1051 = 1051;
	int var1052 = 1052;
	int var1053 = 1053;
	int var1054 = 1054;
	int var1055 = 1055;
	int var1056 = 1056;
	int var1057 = 1057;
	int var1058 = 1058;
	int var1059 = 1059;
	int var1060 = 1060;
	int var1061 = 1061;
	int var1062 = 1062;
	int var1063 = 1063;
	int var1064 = 1064;
	int var1065 = 1065;
	int var1066 = 1066;
	int var1067 = 1067;
	int var1068 = 1068;
	int var1069 = 1069;
	int var1070 = 1070;
	int var1071 = 1071;
	int var1072 = 1072;
	int var1073 = 1073;
	int var1074 = 1074;
	int var1075 = 1075;
	int var1076 = 1076;
	int var1077 = 1077;
	int var1078 = 1078;
	int var1079 = 1079;
	int var1080 = 1080;
	int var1081 = 1081;
	int var1082 = 1082;
	int var1083 = 1083;
	int var1084 = 1084;
	int var1085 = 1085;
	int var1086 = 1086;
	int var1087 = 1087;
	int var1088 = 1088;
	int var1089 = 1089;
	int var1090 = 1090;
	int var1091 = 1091;
	int var1092 = 1092;
	int var1093 = 1093;
	int var1094 = 1094;
	int var1095 = 1095;
	int var1096 = 1096;
	int var1097 = 1097;
	int var1098 = 1098;
	int var1099 = 1099;
	int var1100 = 1100;
	int var1101 = 1101;
	int var1102 = 1102;
	int var1103 = 1103;
	int var1104 = 1104;
	int var1105 = 1105;
	int var1106 = 1106;
	int var1107 = 1107;
	int var1108 = 1108;
	int var1109 = 1109;
	int var1110 = 1110;
	int var1111 = 1111;
	int var1112 = 1112;
	int var1113 = 1113;
	int var1114 = 1114;
	int var1115 = 1115;
	int var1116 = 1116;
	int var1117 = 1117;
	int var1118 = 1118;
	int var1119 = 1119;
	int var1120 = 1120;
	int var1121 = 1121;
	int var1122 = 1122;
	int var1123 = 1123;
	int var1124 = 1124;
	int var1125 = 1125;
	int var1126 = 1126;
	int var1127 = 1127;
	int var1128 = 1128;
	int var1129 = 1129;
	int var1130 = 1130;
	int var1131 = 1131;
	int var1132 = 1132;
	int var1133 = 1133;
	int var1134 = 1134;
	int var1135 = 1135;
	int var1136 = 1136;
	int var1137 = 1137;
	int var1138 = 1138;
	int var1139 = 1139;
	int var1140 = 1140;
	int var1141 = 1141;
	int var1142 = 1142;
	int var1143 = 1143;
	int var1144 = 1144;
	int var1145 = 1145;
	int var1146 = 1146;
	int var1147 = 1147;
	int var1148 = 1148;
	int var1149 = 1149;
	int var1150 = 1150;
	int var1151 = 1151;
	int var1152 = 1152;
	int var1153 = 1153;
	int var1154 = 1154;
	int var1155 = 1155;
	int var1156 = 1156;
	int var1157 = 1157;
	int var1158 = 1158;
	int var1159 = 1159;
	int var1160 = 1160;
	int var1161 = 1161;
	int var1162 = 1162;
	int var1163 = 1163;
	int var1164 = 1164;
	int var1165 = 1165;
	int var1166 = 1166;
	int var1167 = 1167;
	int var1168 = 1168;
	int var1169 = 1169;
	int var1170 = 1170;
	int var1171 = 1171;
	int var1172 = 1172;
	int var1173 = 1173;
	int var1174 = 1174;
	int var1175 = 1175;
	int var1176 = 1176;
	int var1177 = 1177;
	int var1178 = 1178;
	int var1179 = 1179;
	int var1180 = 1180;
	int var1181 = 1181;
	int var1182 = 1182;
	int var1183 = 1183;
	int var1184 = 1184;
	int var1185 = 1185;
	int var1186 = 1186;
	int var1187 = 1187;
	int var1188 = 1188;
	int var1189 = 1189;
	int var1190 = 1190;
	int var1191 = 1191;
	int var1192 = 1192;
	int var1193 = 1193;
	int var1194 = 1194;
	int var1195 = 1195;
	int var1196 = 1196;
	int var1197 = 1197;
	int var1198 = 1198;
	int var1199 = 1199;
	int var1200 = 1200;
	int var1201 = 1201;
	int var1202 = 1202;
	int var1203 = 1203;
	int var1204 = 1204;
	int var1205 = 1205;
	int var1206 = 1206;
	int var1207 = 1207;
	int var1208 = 1208;
	int var1209 = 1209;
	int var1210 = 1210;
	int var1211 = 1211;
	int var1212 = 1212;
	int var1213 = 1213;
	int var1214 = 1214;
	int var1215 = 1215;
	int var1216 = 1216;
	int var1217 = 1217;
	int var1218 = 1218;
	int var1219 = 1219;
	int var1220 = 1220;
	int var1221 = 1221;
	int var1222 = 1222;
	int var1223 = 1223;
	int var1224 = 1224;
	int var1225 = 1225;
	int var1226 = 1226;
	int var1227 = 1227;
	int var1228 = 1228;
	int var1229 = 1229;
	int var1230 = 1230;
	int var1231 = 1231;
	int var1232 = 1232;
	int var1233 = 1233;
	int var1234 = 1234;
	int var1235 = 1235;
	int var1236 = 1236;
	int var1237 = 1237;
	int var1238 = 1238;
	int var1239 = 1239;
	int var1240 = 1240;
	int var1241 = 1241;
	int var1242 = 1242;
	int var1243 = 1243;
	int var1244 = 1244;
	int var1245 = 1245;
	int var1246 = 1246;
	int var1247 = 1247;
	int var1248 = 1248;
	int var1249 = 1249;
	int var1250 = 1250;
	int var1251 = 1251;
	int var1252 = 1252;
	int var1253 = 1253;
	int var1254 = 1254;
	int var1255 = 1255;
	int var1256 = 1256;
	int var1257 = 1257;
	int var1258 = 1258;
	int var1259 = 1259;
	int var1260 = 1260;
	int var1261 = 1261;
	int var1262 = 1262;
	int var1263 = 1263;
	int var1264 = 1264;
	int var1265 = 1265;
	int var1266 = 1266;
	int var1267 = 1267;
	int var1268 = 1268;
	int var1269 = 1269;
	int var1270 = 1270;
	int var1271 = 1271;
	int var1272 = 1272;
	int var1273 = 1273;
	int var1274 = 1274;
	int var1275 = 1275;
	int var1276 = 1276;
	int var1277 = 1277;
	int var1278 = 1278;
	int var1279 = 1279;
	int var1280 = 1280;
	int var1281 = 1281;
	int var1282 = 1282;
	int var1283 = 1283;
	int var1284 = 1284;
	int var1285 = 1285;
	int var1286 = 1286;
	int var1287 = 1287;
	int var1288 = 1288;
	int var1289 = 1289;
	int var1290 = 1290;
	int var1291 = 1291;
	int var1292 = 1292;
	int var1293 = 1293;
	int var1294 = 1294;
	int var1295 = 1295;
	int var1296 = 1296;
	int var1297 = 1297;
	int var1298 = 1298;
	int var1299 = 1299;
	int var1300 = 1300;
	int var1301 = 1301;
	int var1302 = 1302;
	int var1303 = 1303;
	int var1304 = 1304;
	int var1305 = 1305;
	int var1306 = 1306;
	int var1307 = 1307;
	int var1308 = 1308;
	int var1309 = 1309;
	int var1310 = 1310;
	int var1311 = 1311;
	int var1312 = 1312;
	int var1313 = 1313;
	int var1314 = 1314;
	int var1315 = 1315;
	int var1316 = 1316;
	int var1317 = 1317;
	int var1318 = 1318;
	int var1319 = 1319;
	int var1320 = 1320;
	int var1321 = 1321;
	int var1322 = 1322;
	int var1323 = 1323;
	int var1324 = 1324;
	int var1325 = 1325;
	int var1326 = 1326;
	int var1327 = 1327;
	int var1328 = 1328;
	int var1329 = 1329;
	int var1330 = 1330;
	int var1331 = 1331;
	int var1332 = 1332;
	int var1333 = 1333;
	int var1334 = 1334;
	int var1335 = 1335;
	int var1336 = 1336;
	int var1337 = 1337;
	int var1338 = 1338;
	int var1339 = 1339;
	int var1340 = 1340;
	int var1341 = 1341;
	int var1342 = 1342;
	int var1343 = 1343;
	int var1344 = 1344;
	int var1345 = 1345;
	int var1346 = 1346;
	int var1347 = 1347;
	int var1348 = 1348;
	int var1349 = 1349;
	int var1350 = 1350;
	int var1351 = 1351;
	int var1352 = 1352;
	int var1353 = 1353;
	int var1354 = 1354;
	int var1355 = 1355;
	int var1356 = 1356;
	int var1357 = 1357;
	int var1358 = 1358;
	int var1359 = 1359;
	int var1360 = 1360;
	int var1361 = 1361;
	int var1362 = 1362;
	int var1363 = 1363;
	int var1364 = 1364;
	int var1365 = 1365;
	int var1366 = 1366;
	int var1367 = 1367;
	int var1368 = 1368;
	int var1369 = 1369;
	int var1370 = 1370;
	int var1371 = 1371;
	int var1372 = 1372;
	int var1373 = 1373;
	int var1374 = 1374;
	int var1375 = 1375;
	int var1376 = 1376;
	int var1377 = 1377;
	int var1378 = 1378;
	int var1379 = 1379;
	int var1380 = 1380;
	int var1381 = 1381;
	int var1382 = 1382;
	int var1383 = 1383;
	int var1384 = 1384;
	int var1385 = 1385;
	int var1386 = 1386;
	int var1387 = 1387;
	int var1388 = 1388;
	int var1389 = 1389;
	int var1390 = 1390;
	int var1391 = 1391;
	int var1392 = 1392;
	int var1393 = 1393;
	int var1394 = 1394;
	int var1395 = 1395;
	int var1396 = 1396;
	int var1397 = 1397;
	int var1398 = 1398;
	int var1399 = 1399;
	int var1400 = 1400;
	int var1401 = 1401;
	int var1402 = 1402;
	int var1403 = 1403;
	int var1404 = 1404;
	int var1405 = 1405;
	int var1406 = 1406;
	int var1407 = 1407;
	int var1408 = 1408;
	int var1409 = 1409;
	int var1410 = 1410;
	int var1411 = 1411;
	int var1412 = 1412;
	int var1413 = 1413;
	int var1414 = 1414;
	int var1415 = 1415;
	int var1416 = 1416;
	int var1417 = 1417;
	int var1418 = 1418;
	int var1419 = 1419;
	int var1420 = 1420;
	int var1421 = 1421;
	int var1422 = 1422;
	int var1423 = 1423;
	int var1424 = 1424;
	int var1425 = 1425;
	int var1426 = 1426;
	int var1427 = 1427;
	int var1428 = 1428;
	int var1429 = 1429;
	int var1430 = 1430;
	int var1431 = 1431;
	int var1432 = 1432;
	int var1433 = 1433;
	int var1434 = 1434;
	int var1435 = 1435;
	int var1436 = 1436;
	int var1437 = 1437;
	int var1438 = 1438;
	int var1439 = 1439;
	int var1440 = 1440;
	int var1441 = 1441;
	int var1442 = 1442;
	int var1443 = 1443;
	int var1444 = 1444;
	int var1445 = 1445;
	int var1446 = 1446;
	int var1447 = 1447;
	int var1448 = 1448;
	int var1449 = 1449;
	int var1450 = 1450;
	int var1451 = 1451;
	int var1452 = 1452;
	int var1453 = 1453;
	int var1454 = 1454;
	int var1455 = 1455;
	int var1456 = 1456;
	int var1457 = 1457;
	int var1458 = 1458;
	int var1459 = 1459;
	int var1460 = 1460;
	int var1461 = 1461;
	int var1462 = 1462;
	int var1463 = 1463;
	int var1464 = 1464;
	int var1465 = 1465;
	int var1466 = 1466;
	int var1467 = 1467;
	int var1468 = 1468;
	int var1469 = 1469;
	int var1470 = 1470;
	int var1471 = 1471;
	int var1472 = 1472;
	int var1473 = 1473;
	int var1474 = 1474;
	int var1475 = 1475;
	int var1476 = 1476;
	int var1477 = 1477;
	int var1478 = 1478;
	int var1479 = 1479;
	int var1480 = 1480;
	int var1481 = 1481;
	int var1482 = 1482;
	int var1483 = 1483;
	int var1484 = 1484;
	int var1485 = 1485;
	int var1486 = 1486;
	int var1487 = 1487;
	int var1488 = 1488;
	int var1489 = 1489;
	int var1490 = 1490;
	int var1491 = 1491;
	int var1492 = 1492;
	int var1493 = 1493;
	int var1494 = 1494;
	int var1495 = 1495;
	int var1496 = 1496;
	int var1497 = 1497;
	int var1498 = 1498;
	int var1499 = 1499;
	int var1500 = 1500;
	int var1501 = 1501;
	int var1502 = 1502;
	int var1503 = 1503;
	int var1504 = 1504;
	int var1505 = 1505;
	int var1506 = 1506;
	int var1507 = 1507;
	int var1508 = 1508;
	int var1509 = 1509;
	int var1510 = 1510;
	int var1511 = 1511;
	int var1512 = 1512;
	int var1513 = 1513;
	int var1514 = 1514;
	int var1515 = 1515;
	int var1516 = 1516;
	int var1517 = 1517;
	int var1518 = 1518;
	int var1519 = 1519;
	int var1520 = 1520;
	int var1521 = 1521;
	int var1522 = 1522;
	int var1523 = 1523;
	int var1524 = 1524;
	int var1525 = 1525;
	int var1526 = 1526;
	int var1527 = 1527;
	int var1528 = 1528;
	int var1529 = 1529;
	int var1530 = 1530;
	int var1531 = 1531;
	int var1532 = 1532;
	int var1533 = 1533;
	int var1534 = 1534;
	int var1535 = 1535;
	int var1536 = 1536;
	int var1537 = 1537;
	int var1538 = 1538;
	int var1539 = 1539;
	int var1540 = 1540;
	int var1541 = 1541;
	int var1542 = 1542;
	int var1543 = 1543;
	int var1544 = 1544;
	int var1545 = 1545;
	int var1546 = 1546;
	int var1547 = 1547;
	int var1548 = 1548;
	int var1549 = 1549;
	int var1550 = 1550;
	int var1551 = 1551;
	int var1552 = 1552;
	int var1553 = 1553;
	int var1554 = 1554;
	int var1555 = 1555;
	int var1556 = 1556;
	int var1557 = 1557;
	int var1558 = 1558;
	int var1559 = 1559;
	int var1560 = 1560;
	int var1561 = 1561;
	int var1562 = 1562;
	int var1563 = 1563;
	int var1564 = 1564;
	int var1565 = 1565;
	int var1566 = 1566;
	int var1567 = 1567;
	int var1568 = 1568;
	int var1569 = 1569;
	int var1570 = 1570;
	int var1571 = 1571;
	int var1572 = 1572;
	int var1573 = 1573;
	int var1574 = 1574;
	int var1575 = 1575;
	int var1576 = 1576;
	int var1577 = 1577;
	int var1578 = 1578;
	int var1579 = 1579;
	int var1580 = 1580;
	int var1581 = 1581;
	int var1582 = 1582;
	int var1583 = 1583;
	int var1584 = 1584;
	int var1585 = 1585;
	int var1586 = 1586;
	int var1587 = 1587;
	int var1588 = 1588;
	int var1589 = 1589;
	int var1590 = 1590;
	int var1591 = 1591;
	int var1592 = 1592;
	int var1593 = 1593;
	int var1594 = 1594;
	int var1595 = 1595;
	int var1596 = 1596;
	int var1597 = 1597;
	int var1598 = 1598;
	int var1599 = 1599;
	int var1600 = 1600;
	int var1601 = 1601;
	int var1602 = 1602;
	int var1603 = 1603;
	int var1604 = 1604;
	int var1605 = 1605;
	int var1606 = 1606;
	int var1607 = 1607;
	int var1608 = 1608;
	int var1609 = 1609;
	int var1610 = 1610;
	int var1611 = 1611;
	int var1612 = 1612;
	int var1613 = 1613;
	int var1614 = 1614;
	int var1615 = 1615;
	int var1616 = 1616;
	int var1617 = 1617;
	int var1618 = 1618;
	int var1619 = 1619;
	int var1620 = 1620;
	int var1621 = 1621;
	int var1622 = 1622;
	int var1623 = 1623;
	int var1624 = 1624;
	int var1625 = 1625;
	int var1626 = 1626;
	int var1627 = 1627;
	int var1628 = 1628;
	int var1629 = 1629;
	int var1630 = 1630;
	int var1631 = 1631;
	int var1632 = 1632;
	int var1633 = 1633;
	int var1634 = 1634;
	int var1635 = 1635;
	int var1636 = 1636;
	int var1637 = 1637;
	int var1638 = 1638;
	int var1639 = 1639;
	int var1640 = 1640;
	int var1641 = 1641;
	int var1642 = 1642;
	int var1643 = 1643;
	int var1644 = 1644;
	int var1645 = 1645;
	int var1646 = 1646;
	int var1647 = 1647;
	int var1648 = 1648;
	int var1649 = 1649;
	int var1650 = 1650;
	int var1651 = 1651;
	int var1652 = 1652;
	int var1653 = 1653;
	int var1654 = 1654;
	int var1655 = 1655;
	int var1656 = 1656;
	int var1657 = 1657;
	int var1658 = 1658;
	int var1659 = 1659;
	int var1660 = 1660;
	int var1661 = 1661;
	int var1662 = 1662;
	int var1663 = 1663;
	int var1664 = 1664;
	int var1665 = 1665;
	int var1666 = 1666;
	int var1667 = 1667;
	int var1668 = 1668;
	int var1669 = 1669;
	int var1670 = 1670;
	int var1671 = 1671;
	int var1672 = 1672;
	int var1673 = 1673;
	int var1674 = 1674;
	int var1675 = 1675;
	int var1676 = 1676;
	int var1677 = 1677;
	int var1678 = 1678;
	int var1679 = 1679;
	int var1680 = 1680;
	int var1681 = 1681;
	int var1682 = 1682;
	int var1683 = 1683;
	int var1684 = 1684;
	int var1685 = 1685;
	int var1686 = 1686;
	int var1687 = 1687;
	int var1688 = 1688;
	int var1689 = 1689;
	int var1690 = 1690;
	int var1691 = 1691;
	int var1692 = 1692;
	int var1693 = 1693;
	int var1694 = 1694;
	int var1695 = 1695;
	int var1696 = 1696;
	int var1697 = 1697;
	int var1698 = 1698;
	int var1699 = 1699;
	int var1700 = 1700;
	int var1701 = 1701;
	int var1702 = 1702;
	int var1703 = 1703;
	int var1704 = 1704;
	int var1705 = 1705;
	int var1706 = 1706;
	int var1707 = 1707;
	int var1708 = 1708;
	int var1709 = 1709;
	int var1710 = 1710;
	int var1711 = 1711;
	int var1712 = 1712;
	int var1713 = 1713;
	int var1714 = 1714;
	int var1715 = 1715;
	int var1716 = 1716;
	int var1717 = 1717;
	int var1718 = 1718;
	int var1719 = 1719;
	int var1720 = 1720;
	int var1721 = 1721;
	int var1722 = 1722;
	int var1723 = 1723;
	int var1724 = 1724;
	int var1725 = 1725;
	int var1726 = 1726;
	int var1727 = 1727;
	int var1728 = 1728;
	int var1729 = 1729;
	int var1730 = 1730;
	int var1731 = 1731;
	int var1732 = 1732;
	int var1733 = 1733;
	int var1734 = 1734;
	int var1735 = 1735;
	int var1736 = 1736;
	int var1737 = 1737;
	int var1738 = 1738;
	int var1739 = 1739;
	int var1740 = 1740;
	int var1741 = 1741;
	int var1742 = 1742;
	int var1743 = 1743;
	int var1744 = 1744;
	int var1745 = 1745;
	int var1746 = 1746;
	int var1747 = 1747;
	int var1748 = 1748;
	int var1749 = 1749;
	int var1750 = 1750;
	int var1751 = 1751;
	int var1752 = 1752;
	int var1753 = 1753;
	int var1754 = 1754;
	int var1755 = 1755;
	int var1756 = 1756;
	int var1757 = 1757;
	int var1758 = 1758;
	int var1759 = 1759;
	int var1760 = 1760;
	int var1761 = 1761;
	int var1762 = 1762;
	int var1763 = 1763;
	int var1764 = 1764;
	int var1765 = 1765;
	int var1766 = 1766;
	int var1767 = 1767;
	int var1768 = 1768;
	int var1769 = 1769;
	int var1770 = 1770;
	int var1771 = 1771;
	int var1772 = 1772;
	int var1773 = 1773;
	int var1774 = 1774;
	int var1775 = 1775;
	int var1776 = 1776;
	int var1777 = 1777;
	int var1778 = 1778;
	int var1779 = 1779;
	int var1780 = 1780;
	int var1781 = 1781;
	int var1782 = 1782;
	int var1783 = 1783;
	int var1784 = 1784;
	int var1785 = 1785;
	int var1786 = 1786;
	int var1787 = 1787;
	int var1788 = 1788;
	int var1789 = 1789;
	int var1790 = 1790;
	int var1791 = 1791;
	int var1792 = 1792;
	int var1793 = 1793;
	int var1794 = 1794;
	int var1795 = 1795;
	int var1796 = 1796;
	int var1797 = 1797;
	int var1798 = 1798;
	int var1799 = 1799;
	int var1800 = 1800;
	int var1801 = 1801;
	int var1802 = 1802;
	int var1803 = 1803;
	int var1804 = 1804;
	int var1805 = 1805;
	int var1806 = 1806;
	int var1807 = 1807;
	int var1808 = 1808;
	int var1809 = 1809;
	int var1810 = 1810;
	int var1811 = 1811;
	int var1812 = 1812;
	int var1813 = 1813;
	int var1814 = 1814;
	int var1815 = 1815;
	int var1816 = 1816;
	int var1817 = 1817;
	int var1818 = 1818;
	int var1819 = 1819;
	int var1820 = 1820;
	int var1821 = 1821;
	int var1822 = 1822;
	int var1823 = 1823;
	int var1824 = 1824;
	int var1825 = 1825;
	int var1826 = 1826;
	int var1827 = 1827;
	int var1828 = 1828;
	int var1829 = 1829;
	int var1830 = 1830;
	int var1831 = 1831;
	int var1832 = 1832;
	int var1833 = 1833;
	int var1834 = 1834;
	int var1835 = 1835;
	int var1836 = 1836;
	int var1837 = 1837;
	int var1838 = 1838;
	int var1839 = 1839;
	int var1840 = 1840;
	int var1841 = 1841;
	int var1842 = 1842;
	int var1843 = 1843;
	int var1844 = 1844;
	int var1845 = 1845;
	int var1846 = 1846;
	int var1847 = 1847;
	int var1848 = 1848;
	int var1849 = 1849;
	int var1850 = 1850;
	int var1851 = 1851;
	int var1852 = 1852;
	int var1853 = 1853;
	int var1854 = 1854;
	int var1855 = 1855;
	int var1856 = 1856;
	int var1857 = 1857;
	int var1858 = 1858;
	int var1859 = 1859;
	int var1860 = 1860;
	int var1861 = 1861;
	int var1862 = 1862;
	int var1863 = 1863;
	int var1864 = 1864;
	int var1865 = 1865;
	int var1866 = 1866;
	int var1867 = 1867;
	int var1868 = 1868;
	int var1869 = 1869;
	int var1870 = 1870;
	int var1871 = 1871;
	int var1872 = 1872;
	int var1873 = 1873;
	int var1874 = 1874;
	int var1875 = 1875;
	int var1876 = 1876;
	int var1877 = 1877;
	int var1878 = 1878;
	int var1879 = 1879;
	int var1880 = 1880;
	int var1881 = 1881;
	int var1882 = 1882;
	int var1883 = 1883;
	int var1884 = 1884;
	int var1885 = 1885;
	int var1886 = 1886;
	int var1887 = 1887;
	int var1888 = 1888;
	int var1889 = 1889;
	int var1890 = 1890;
	int var1891 = 1891;
	int var1892 = 1892;
	int var1893 = 1893;
	int var1894 = 1894;
	int var1895 = 1895;
	int var1896 = 1896;
	int var1897 = 1897;
	int var1898 = 1898;
	int var1899 = 1899;
	int var1900 = 1900;
	int var1901 = 1901;
	int var1902 = 1902;
	int var1903 = 1903;
	int var1904 = 1904;
	int var1905 = 1905;
	int var1906 = 1906;
	int var1907 = 1907;
	int var1908 = 1908;
	int var1909 = 1909;
	int var1910 = 1910;
	int var1911 = 1911;
	int var1912 = 1912;
	int var1913 = 1913;
	int var1914 = 1914;
	int var1915 = 1915;
	int var1916 = 1916;
	int var1917 = 1917;
	int var1918 = 1918;
	int var1919 = 1919;
	int var1920 = 1920;
	int var1921 = 1921;
	int var1922 = 1922;
	int var1923 = 1923;
	int var1924 = 1924;
	int var1925 = 1925;
	int var1926 = 1926;
	int var1927 = 1927;
	int var1928 = 1928;
	int var1929 = 1929;
	int var1930 = 1930;
	int var1931 = 1931;
	int var1932 = 1932;
	int var1933 = 1933;
	int var1934 = 1934;
	int var1935 = 1935;
	int var1936 = 1936;
	int var1937 = 1937;
	int var1938 = 1938;
	int var1939 = 1939;
	int var1940 = 1940;
	int var1941 = 1941;
	int var1942 = 1942;
	int var1943 = 1943;
	int var1944 = 1944;
	int var1945 = 1945;
	int var1946 = 1946;
	int var1947 = 1947;
	int var1948 = 1948;
	int var1949 = 1949;
	int var1950 = 1950;
	int var1951 = 1951;
	int var1952 = 1952;
	int var1953 = 1953;
	int var1954 = 1954;
	int var1955 = 1955;
	int var1956 = 1956;
	int var1957 = 1957;
	int var1958 = 1958;
	int var1959 = 1959;
	int var1960 = 1960;
	int var1961 = 1961;
	int var1962 = 1962;
	int var1963 = 1963;
	int var1964 = 1964;
	int var1965 = 1965;
	int var1966 = 1966;
	int var1967 = 1967;
	int var1968 = 1968;
	int var1969 = 1969;
	int var1970 = 1970;
	int var1971 = 1971;
	int var1972 = 1972;
	int var1973 = 1973;
	int var1974 = 1974;
	int var1975 = 1975;
	int var1976 = 1976;
	int var1977 = 1977;
	int var1978 = 1978;
	int var1979 = 1979;
	int var1980 = 1980;
	int var1981 = 1981;
	int var1982 = 1982;
	int var1983 = 1983;
	int var1984 = 1984;
	int var1985 = 1985;
	int var1986 = 1986;
	int var1987 = 1987;
	int var1988 = 1988;
	int var1989 = 1989;
	int var1990 = 1990;
	int var1991 = 1991;
	int var1992 = 1992;
	int var1993 = 1993;
	int var1994 = 1994;
	int var1995 = 1995;
	int var1996 = 1996;
	int var1997 = 1997;
	int var1998 = 1998;
	int var1999 = 1999;
	int var2000 = 2000;
	int var2001 = 2001;
	int var2002 = 2002;
	int var2003 = 2003;
	int var2004 = 2004;
	int var2005 = 2005;
	int var2006 = 2006;
	int var2007 = 2007;
	int var2008 = 2008;
	int var2009 = 2009;
	int var2010 = 2010;
	int var2011 = 2011;
	int var2012 = 2012;
	int var2013 = 2013;
	int var2014 = 2014;
	int var2015 = 2015;
	int var2016 = 2016;
	int var2017 = 2017;
	int var2018 = 2018;
	int var2019 = 2019;
	int var2020 = 2020;
	int var2021 = 2021;
	int var2022 = 2022;
	int var2023 = 2023;
	int var2024 = 2024;
	int var2025 = 2025;
	int var2026 = 2026;
	int var2027 = 2027;
	int var2028 = 2028;
	int var2029 = 2029;
	int var2030 = 2030;
	int var2031 = 2031;
	int var2032 = 2032;
	int var2033 = 2033;
	int var2034 = 2034;
	int var2035 = 2035;
	int var2036 = 2036;
	int var2037 = 2037;
	int var2038 = 2038;
	int var2039 = 2039;
	int var2040 = 2040;
	int var2041 = 2041;
	int var2042 = 2042;
	int var2043 = 2043;
	int var2044 = 2044;
	int var2045 = 2045;
	int var2046 = 2046;
	int var2047 = 2047;

	return var0 + var1 + var2 + var3 + var4 + var5 + var6 + var7 + var8 + var9 + var10 + var11 + var12 + var13 + var14 + var15 + var16 + var17 + var18 + var19 + var20 + var21 + var22 + var23 + var24 + var25 + var26 + var27 + var28 + var29 + var30 + var31 + var32 + var33 + var34 + var35 + var36 + var37 + var38 + var39 + var40 + var41 + var42 + var43 + var44 + var45 + var46 + var47 + var48 + var49 + var50 + var51 + var52 + var53 + var54 + var55 + var56 + var57 + var58 + var59 + var60 + var61 + var62 + var63 + var64 + var65 + var66 + var67 + var68 + var69 + var70 + var71 + var72 + var73 + var74 + var75 + var76 + var77 + var78 + var79 + var80 + var81 + var82 + var83 + var84 + var85 + var86 + var87 + var88 + var89 + var90 + var91 + var92 + var93 + var94 + var95 + var96 + var97 + var98 + var99 + var100 + var101 + var102 + var103 + var104 + var105 + var106 + var107 + var108 + var109 + var110 + var111 + var112 + var113 + var114 + var115 + var116 + var117 + var118 + var119 + var120 + var121 + var122 + var123 + var124 + var125 + var126 + var127 + var128 + var129 + var130 + var131 + var132 + var133 + var134 + var135 + var136 + var137 + var138 + var139 + var140 + var141 + var142 + var143 + var144 + var145 + var146 + var147 + var148 + var149 + var150 + var151 + var152 + var153 + var154 + var155 + var156 + var157 + var158 + var159 + var160 + var161 + var162 + var163 + var164 + var165 + var166 + var167 + var168 + var169 + var170 + var171 + var172 + var173 + var174 + var175 + var176 + var177 + var178 + var179 + var180 + var181 + var182 + var183 + var184 + var185 + var186 + var187 + var188 + var189 + var190 + var191 + var192 + var193 + var194 + var195 + var196 + var197 + var198 + var199 + var200 + var201 + var202 + var203 + var204 + var205 + var206 + var207 + var208 + var209 + var210 + var211 + var212 + var213 + var214 + var215 + var216 + var217 + var218 + var219 + var220 + var221 + var222 + var223 + var224 + var225 + var226 + var227 + var228 + var229 + var230 + var231 + var232 + var233 + var234 + var235 + var236 + var237 + var238 + var239 + var240 + var241 + var242 + var243 + var244 + var245 + var246 + var247 + var248 + var249 + var250 + var251 + var252 + var253 + var254 + var255 + var256 + var257 + var258 + var259 + var260 + var261 + var262 + var263 + var264 + var265 + var266 + var267 + var268 + var269 + var270 + var271 + var272 + var273 + var274 + var275 + var276 + var277 + var278 + var279 + var280 + var281 + var282 + var283 + var284 + var285 + var286 + var287 + var288 + var289 + var290 + var291 + var292 + var293 + var294 + var295 + var296 + var297 + var298 + var299 + var300 + var301 + var302 + var303 + var304 + var305 + var306 + var307 + var308 + var309 + var310 + var311 + var312 + var313 + var314 + var315 + var316 + var317 + var318 + var319 + var320 + var321 + var322 + var323 + var324 + var325 + var326 + var327 + var328 + var329 + var330 + var331 + var332 + var333 + var334 + var335 + var336 + var337 + var338 + var339 + var340 + var341 + var342 + var343 + var344 + var345 + var346 + var347 + var348 + var349 + var350 + var351 + var352 + var353 + var354 + var355 + var356 + var357 + var358 + var359 + var360 + var361 + var362 + var363 + var364 + var365 + var366 + var367 + var368 + var369 + var370 + var371 + var372 + var373 + var374 + var375 + var376 + var377 + var378 + var379 + var380 + var381 + var382 + var383 + var384 + var385 + var386 + var387 + var388 + var389 + var390 + var391 + var392 + var393 + var394 + var395 + var396 + var397 + var398 + var399 + var400 + var401 + var402 + var403 + var404 + var405 + var406 + var407 + var408 + var409 + var410 + var411 + var412 + var413 + var414 + var415 + var416 + var417 + var418 + var419 + var420 + var421 + var422 + var423 + var424 + var425 + var426 + var427 + var428 + var429 + var430 + var431 + var432 + var433 + var434 + var435 + var436 + var437 + var438 + var439 + var440 + var441 + var442 + var443 + var444 + var445 + var446 + var447 + var448 + var449 + var450 + var451 + var452 + var453 + var454 + var455 + var456 + var457 + var458 + var459 + var460 + var461 + var462 + var463 + var464 + var465 + var466 + var467 + var468 + var469 + var470 + var471 + var472 + var473 + var474 + var475 + var476 + var477 + var478 + var479 + var480 + var481 + var482 + var483 + var484 + var485 + var486 + var487 + var488 + var489 + var490 + var491 + var492 + var493 + var494 + var495 + var496 + var497 + var498 + var499 + var500 + var501 + var502 + var503 + var504 + var505 + var506 + var507 + var508 + var509 + var510 + var511 + var512 + var513 + var514 + var515 + var516 + var517 + var518 + var519 + var520 + var521 + var522 + var523 + var524 + var525 + var526 + var527 + var528 + var529 + var530 + var531 + var532 + var533 + var534 + var535 + var536 + var537 + var538 + var539 + var540 + var541 + var542 + var543 + var544 + var545 + var546 + var547 + var548 + var549 + var550 + var551 + var552 + var553 + var554 + var555 + var556 + var557 + var558 + var559 + var560 + var561 + var562 + var563 + var564 + var565 + var566 + var567 + var568 + var569 + var570 + var571 + var572 + var573 + var574 + var575 + var576 + var577 + var578 + var579 + var580 + var581 + var582 + var583 + var584 + var585 + var586 + var587 + var588 + var589 + var590 + var591 + var592 + var593 + var594 + var595 + var596 + var597 + var598 + var599 + var600 + var601 + var602 + var603 + var604 + var605 + var606 + var607 + var608 + var609 + var610 + var611 + var612 + var613 + var614 + var615 + var616 + var617 + var618 + var619 + var620 + var621 + var622 + var623 + var624 + var625 + var626 + var627 + var628 + var629 + var630 + var631 + var632 + var633 + var634 + var635 + var636 + var637 + var638 + var639 + var640 + var641 + var642 + var643 + var644 + var645 + var646 + var647 + var648 + var649 + var650 + var651 + var652 + var653 + var654 + var655 + var656 + var657 + var658 + var659 + var660 + var661 + var662 + var663 + var664 + var665 + var666 + var667 + var668 + var669 + var670 + var671 + var672 + var673 + var674 + var675 + var676 + var677 + var678 + var679 + var680 + var681 + var682 + var683 + var684 + var685 + var686 + var687 + var688 + var689 + var690 + var691 + var692 + var693 + var694 + var695 + var696 + var697 + var698 + var699 + var700 + var701 + var702 + var703 + var704 + var705 + var706 + var707 + var708 + var709 + var710 + var711 + var712 + var713 + var714 + var715 + var716 + var717 + var718 + var719 + var720 + var721 + var722 + var723 + var724 + var725 + var726 + var727 + var728 + var729 + var730 + var731 + var732 + var733 + var734 + var735 + var736 + var737 + var738 + var739 + var740 + var741 + var742 + var743 + var744 + var745 + var746 + var747 + var748 + var749 + var750 + var751 + var752 + var753 + var754 + var755 + var756 + var757 + var758 + var759 + var760 + var761 + var762 + var763 + var764 + var765 + var766 + var767 + var768 + var769 + var770 + var771 + var772 + var773 + var774 + var775 + var776 + var777 + var778 + var779 + var780 + var781 + var782 + var783 + var784 + var785 + var786 + var787 + var788 + var789 + var790 + var791 + var792 + var793 + var794 + var795 + var796 + var797 + var798 + var799 + var800 + var801 + var802 + var803 + var804 + var805 + var806 + var807 + var808 + var809 + var810 + var811 + var812 + var813 + var814 + var815 + var816 + var817 + var818 + var819 + var820 + var821 + var822 + var823 + var824 + var825 + var826 + var827 + var828 + var829 + var830 + var831 + var832 + var833 + var834 + var835 + var836 + var837 + var838 + var839 + var840 + var841 + var842 + var843 + var844 + var845 + var846 + var847 + var848 + var849 + var850 + var851 + var852 + var853 + var854 + var855 + var856 + var857 + var858 + var859 + var860 + var861 + var862 + var863 + var864 + var865 + var866 + var867 + var868 + var869 + var870 + var871 + var872 + var873 + var874 + var875 + var876 + var877 + var878 + var879 + var880 + var881 + var882 + var883 + var884 + var885 + var886 + var887 + var888 + var889 + var890 + var891 + var892 + var893 + var894 + var895 + var896 + var897 + var898 + var899 + var900 + var901 + var902 + var903 + var904 + var905 + var906 + var907 + var908 + var909 + var910 + var911 + var912 + var913 + var914 + var915 + var916 + var917 + var918 + var919 + var920 + var921 + var922 + var923 + var924 + var925 + var926 + var927 + var928 + var929 + var930 + var931 + var932 + var933 + var934 + var935 + var936 + var937 + var938 + var939 + var940 + var941 + var942 + var943 + var944 + var945 + var946 + var947 + var948 + var949 + var950 + var951 + var952 + var953 + var954 + var955 + var956 + var957 + var958 + var959 + var960 + var961 + var962 + var963 + var964 + var965 + var966 + var967 + var968 + var969 + var970 + var971 + var972 + var973 + var974 + var975 + var976 + var977 + var978 + var979 + var980 + var981 + var982 + var983 + var984 + var985 + var986 + var987 + var988 + var989 + var990 + var991 + var992 + var993 + var994 + var995 + var996 + var997 + var998 + var999 + var1000 + var1001 + var1002 + var1003 + var1004 + var1005 + var1006 + var1007 + var1008 + var1009 + var1010 + var1011 + var1012 + var1013 + var1014 + var1015 + var1016 + var1017 + var1018 + var1019 + var1020 + var1021 + var1022 + var1023 + var1024 + var1025 + var1026 + var1027 + var1028 + var1029 + var1030 + var1031 + var1032 + var1033 + var1034 + var1035 + var1036 + var1037 + var1038 + var1039 + var1040 + var1041 + var1042 + var1043 + var1044 + var1045 + var1046 + var1047 + var1048 + var1049 + var1050 + var1051 + var1052 + var1053 + var1054 + var1055 + var1056 + var1057 + var1058 + var1059 + var1060 + var1061 + var1062 + var1063 + var1064 + var1065 + var1066 + var1067 + var1068 + var1069 + var1070 + var1071 + var1072 + var1073 + var1074 + var1075 + var1076 + var1077 + var1078 + var1079 + var1080 + var1081 + var1082 + var1083 + var1084 + var1085 + var1086 + var1087 + var1088 + var1089 + var1090 + var1091 + var1092 + var1093 + var1094 + var1095 + var1096 + var1097 + var1098 + var1099 + var1100 + var1101 + var1102 + var1103 + var1104 + var1105 + var1106 + var1107 + var1108 + var1109 + var1110 + var1111 + var1112 + var1113 + var1114 + var1115 + var1116 + var1117 + var1118 + var1119 + var1120 + var1121 + var1122 + var1123 + var1124 + var1125 + var1126 + var1127 + var1128 + var1129 + var1130 + var1131 + var1132 + var1133 + var1134 + var1135 + var1136 + var1137 + var1138 + var1139 + var1140 + var1141 + var1142 + var1143 + var1144 + var1145 + var1146 + var1147 + var1148 + var1149 + var1150 + var1151 + var1152 + var1153 + var1154 + var1155 + var1156 + var1157 + var1158 + var1159 + var1160 + var1161 + var1162 + var1163 + var1164 + var1165 + var1166 + var1167 + var1168 + var1169 + var1170 + var1171 + var1172 + var1173 + var1174 + var1175 + var1176 + var1177 + var1178 + var1179 + var1180 + var1181 + var1182 + var1183 + var1184 + var1185 + var1186 + var1187 + var1188 + var1189 + var1190 + var1191 + var1192 + var1193 + var1194 + var1195 + var1196 + var1197 + var1198 + var1199 + var1200 + var1201 + var1202 + var1203 + var1204 + var1205 + var1206 + var1207 + var1208 + var1209 + var1210 + var1211 + var1212 + var1213 + var1214 + var1215 + var1216 + var1217 + var1218 + var1219 + var1220 + var1221 + var1222 + var1223 + var1224 + var1225 + var1226 + var1227 + var1228 + var1229 + var1230 + var1231 + var1232 + var1233 + var1234 + var1235 + var1236 + var1237 + var1238 + var1239 + var1240 + var1241 + var1242 + var1243 + var1244 + var1245 + var1246 + var1247 + var1248 + var1249 + var1250 + var1251 + var1252 + var1253 + var1254 + var1255 + var1256 + var1257 + var1258 + var1259 + var1260 + var1261 + var1262 + var1263 + var1264 + var1265 + var1266 + var1267 + var1268 + var1269 + var1270 + var1271 + var1272 + var1273 + var1274 + var1275 + var1276 + var1277 + var1278 + var1279 + var1280 + var1281 + var1282 + var1283 + var1284 + var1285 + var1286 + var1287 + var1288 + var1289 + var1290 + var1291 + var1292 + var1293 + var1294 + var1295 + var1296 + var1297 + var1298 + var1299 + var1300 + var1301 + var1302 + var1303 + var1304 + var1305 + var1306 + var1307 + var1308 + var1309 + var1310 + var1311 + var1312 + var1313 + var1314 + var1315 + var1316 + var1317 + var1318 + var1319 + var1320 + var1321 + var1322 + var1323 + var1324 + var1325 + var1326 + var1327 + var1328 + var1329 + var1330 + var1331 + var1332 + var1333 + var1334 + var1335 + var1336 + var1337 + var1338 + var1339 + var1340 + var1341 + var1342 + var1343 + var1344 + var1345 + var1346 + var1347 + var1348 + var1349 + var1350 + var1351 + var1352 + var1353 + var1354 + var1355 + var1356 + var1357 + var1358 + var1359 + var1360 + var1361 + var1362 + var1363 + var1364 + var1365 + var1366 + var1367 + var1368 + var1369 + var1370 + var1371 + var1372 + var1373 + var1374 + var1375 + var1376 + var1377 + var1378 + var1379 + var1380 + var1381 + var1382 + var1383 + var1384 + var1385 + var1386 + var1387 + var1388 + var1389 + var1390 + var1391 + var1392 + var1393 + var1394 + var1395 + var1396 + var1397 + var1398 + var1399 + var1400 + var1401 + var1402 + var1403 + var1404 + var1405 + var1406 + var1407 + var1408 + var1409 + var1410 + var1411 + var1412 + var1413 + var1414 + var1415 + var1416 + var1417 + var1418 + var1419 + var1420 + var1421 + var1422 + var1423 + var1424 + var1425 + var1426 + var1427 + var1428 + var1429 + var1430 + var1431 + var1432 + var1433 + var1434 + var1435 + var1436 + var1437 + var1438 + var1439 + var1440 + var1441 + var1442 + var1443 + var1444 + var1445 + var1446 + var1447 + var1448 + var1449 + var1450 + var1451 + var1452 + var1453 + var1454 + var1455 + var1456 + var1457 + var1458 + var1459 + var1460 + var1461 + var1462 + var1463 + var1464 + var1465 + var1466 + var1467 + var1468 + var1469 + var1470 + var1471 + var1472 + var1473 + var1474 + var1475 + var1476 + var1477 + var1478 + var1479 + var1480 + var1481 + var1482 + var1483 + var1484 + var1485 + var1486 + var1487 + var1488 + var1489 + var1490 + var1491 + var1492 + var1493 + var1494 + var1495 + var1496 + var1497 + var1498 + var1499 + var1500 + var1501 + var1502 + var1503 + var1504 + var1505 + var1506 + var1507 + var1508 + var1509 + var1510 + var1511 + var1512 + var1513 + var1514 + var1515 + var1516 + var1517 + var1518 + var1519 + var1520 + var1521 + var1522 + var1523 + var1524 + var1525 + var1526 + var1527 + var1528 + var1529 + var1530 + var1531 + var1532 + var1533 + var1534 + var1535 + var1536 + var1537 + var1538 + var1539 + var1540 + var1541 + var1542 + var1543 + var1544 + var1545 + var1546 + var1547 + var1548 + var1549 + var1550 + var1551 + var1552 + var1553 + var1554 + var1555 + var1556 + var1557 + var1558 + var1559 + var1560 + var1561 + var1562 + var1563 + var1564 + var1565 + var1566 + var1567 + var1568 + var1569 + var1570 + var1571 + var1572 + var1573 + var1574 + var1575 + var1576 + var1577 + var1578 + var1579 + var1580 + var1581 + var1582 + var1583 + var1584 + var1585 + var1586 + var1587 + var1588 + var1589 + var1590 + var1591 + var1592 + var1593 + var1594 + var1595 + var1596 + var1597 + var1598 + var1599 + var1600 + var1601 + var1602 + var1603 + var1604 + var1605 + var1606 + var1607 + var1608 + var1609 + var1610 + var1611 + var1612 + var1613 + var1614 + var1615 + var1616 + var1617 + var1618 + var1619 + var1620 + var1621 + var1622 + var1623 + var1624 + var1625 + var1626 + var1627 + var1628 + var1629 + var1630 + var1631 + var1632 + var1633 + var1634 + var1635 + var1636 + var1637 + var1638 + var1639 + var1640 + var1641 + var1642 + var1643 + var1644 + var1645 + var1646 + var1647 + var1648 + var1649 + var1650 + var1651 + var1652 + var1653 + var1654 + var1655 + var1656 + var1657 + var1658 + var1659 + var1660 + var1661 + var1662 + var1663 + var1664 + var1665 + var1666 + var1667 + var1668 + var1669 + var1670 + var1671 + var1672 + var1673 + var1674 + var1675 + var1676 + var1677 + var1678 + var1679 + var1680 + var1681 + var1682 + var1683 + var1684 + var1685 + var1686 + var1687 + var1688 + var1689 + var1690 + var1691 + var1692 + var1693 + var1694 + var1695 + var1696 + var1697 + var1698 + var1699 + var1700 + var1701 + var1702 + var1703 + var1704 + var1705 + var1706 + var1707 + var1708 + var1709 + var1710 + var1711 + var1712 + var1713 + var1714 + var1715 + var1716 + var1717 + var1718 + var1719 + var1720 + var1721 + var1722 + var1723 + var1724 + var1725 + var1726 + var1727 + var1728 + var1729 + var1730 + var1731 + var1732 + var1733 + var1734 + var1735 + var1736 + var1737 + var1738 + var1739 + var1740 + var1741 + var1742 + var1743 + var1744 + var1745 + var1746 + var1747 + var1748 + var1749 + var1750 + var1751 + var1752 + var1753 + var1754 + var1755 + var1756 + var1757 + var1758 + var1759 + var1760 + var1761 + var1762 + var1763 + var1764 + var1765 + var1766 + var1767 + var1768 + var1769 + var1770 + var1771 + var1772 + var1773 + var1774 + var1775 + var1776 + var1777 + var1778 + var1779 + var1780 + var1781 + var1782 + var1783 + var1784 + var1785 + var1786 + var1787 + var1788 + var1789 + var1790 + var1791 + var1792 + var1793 + var1794 + var1795 + var1796 + var1797 + var1798 + var1799 + var1800 + var1801 + var1802 + var1803 + var1804 + var1805 + var1806 + var1807 + var1808 + var1809 + var1810 + var1811 + var1812 + var1813 + var1814 + var1815 + var1816 + var1817 + var1818 + var1819 + var1820 + var1821 + var1822 + var1823 + var1824 + var1825 + var1826 + var1827 + var1828 + var1829 + var1830 + var1831 + var1832 + var1833 + var1834 + var1835 + var1836 + var1837 + var1838 + var1839 + var1840 + var1841 + var1842 + var1843 + var1844 + var1845 + var1846 + var1847 + var1848 + var1849 + var1850 + var1851 + var1852 + var1853 + var1854 + var1855 + var1856 + var1857 + var1858 + var1859 + var1860 + var1861 + var1862 + var1863 + var1864 + var1865 + var1866 + var1867 + var1868 + var1869 + var1870 + var1871 + var1872 + var1873 + var1874 + var1875 + var1876 + var1877 + var1878 + var1879 + var1880 + var1881 + var1882 + var1883 + var1884 + var1885 + var1886 + var1887 + var1888 + var1889 + var1890 + var1891 + var1892 + var1893 + var1894 + var1895 + var1896 + var1897 + var1898 + var1899 + var1900 + var1901 + var1902 + var1903 + var1904 + var1905 + var1906 + var1907 + var1908 + var1909 + var1910 + var1911 + var1912 + var1913 + var1914 + var1915 + var1916 + var1917 + var1918 + var1919 + var1920 + var1921 + var1922 + var1923 + var1924 + var1925 + var1926 + var1927 + var1928 + var1929 + var1930 + var1931 + var1932 + var1933 + var1934 + var1935 + var1936 + var1937 + var1938 + var1939 + var1940 + var1941 + var1942 + var1943 + var1944 + var1945 + var1946 + var1947 + var1948 + var1949 + var1950 + var1951 + var1952 + var1953 + var1954 + var1955 + var1956 + var1957 + var1958 + var1959 + var1960 + var1961 + var1962 + var1963 + var1964 + var1965 + var1966 + var1967 + var1968 + var1969 + var1970 + var1971 + var1972 + var1973 + var1974 + var1975 + var1976 + var1977 + var1978 + var1979 + var1980 + var1981 + var1982 + var1983 + var1984 + var1985 + var1986 + var1987 + var1988 + var1989 + var1990 + var1991 + var1992 + var1993 + var1994 + var1995 + var1996 + var1997 + var1998 + var1999 + var2000 + var2001 + var2002 + var2003 + var2004 + var2005 + var2006 + var2007 + var2008 + var2009 + var2010 + var2011 + var2012 + var2013 + var2014 + var2015 + var2016 + var2017 + var2018 + var2019 + var2020 + var2021 + var2022 + var2023 + var2024 + var2025 + var2026 + var2027 + var2028 + var2029 + var2030 + var2031 + var2032 + var2033 + var2034 + var2035 + var2036 + var2037 + var2038 + var2039 + var2040 + var2041 + var2042 + var2043 + var2044 + var2045 + var2046 + var2047;
}
